tree
version=v4
num_class=1
num_tree_per_iteration=1
label_index=0
max_feature_idx=7
objective=binary sigmoid:1
feature_names=eu_home eu_draw eu_away asian_handicap asian_home asian_away eu_implied_home eu_implied_away
feature_infos=[1.1000000000000001:9] [3.25:11] [1.25:26] [-1.75:2.5] [0.80000000000000004:1.1000000000000001] [0.80000000000000004:1.0900000000000001] [0.12195121951219511:0.95940959409594095] [0.040590405904059046:0.87804878048780488]
tree_sizes=957 970 1065 967 1066 1067 1073 970 1072 969 981 969 974 1076 1082 1080 1078 977 976 1079 1078 1084 974 1088 1083 1082 1082 1080 975 878 1185 1076 978 975 1075 1184

Tree=0
num_leaves=8
num_cat=0
split_feature=3 5 3 6 4 4 7
split_gain=26.3898 15.608 5.37572 2.74129 2.16219 0.949965 0.612871
threshold=0.37500000000000006 0.85500000000000009 0.87500000000000011 0.56648343485366226 0.9850000000000001 0.89500000000000013 0.16117164569176956
decision_type=2 2 2 2 2 2 2
left_child=1 -1 4 -3 -2 -4 -7
right_child=2 3 5 -5 -6 6 -8
leaf_value=-0.59512736641953456 -0.50724113129255932 -0.36762253033833436 -0.59594618227475482 -0.4526534076112082 -0.59594618227475482 -0.67680424797775629 -0.63216303740949742
leaf_weight=5.8155991137027767 6.2808470427989977 9.0723346173763257 4.8851032555103329 6.513471007347106 4.8851032555103302 4.6524792909622184 9.0723346173763257
leaf_count=25 27 39 21 28 21 20 39
internal_value=-0.540025 -0.455323 -0.600904 -0.403158 -0.54605 -0.633816 -0.647296
internal_weight=51.1773 21.4014 29.7759 15.5858 11.166 18.6099 13.7248
internal_count=220 92 128 67 48 80 59
is_linear=0
shrinkage=1


Tree=1
num_leaves=8
num_cat=0
split_feature=3 5 3 6 4 4 7
split_gain=21.2707 12.1399 4.57082 2.02662 1.76731 0.834443 0.553733
threshold=0.37500000000000006 0.85500000000000009 0.87500000000000011 0.56648343485366226 0.9850000000000001 0.89500000000000013 0.16117164569176956
decision_type=2 2 2 2 2 2 2
left_child=1 -1 4 -3 -2 -4 -7
right_child=2 3 5 -5 -6 6 -8
leaf_value=-0.050395134598784398 0.029244891489206205 0.14896794387318241 -0.051156758564574335 0.076887150117115541 -0.05115675856457437 -0.12844477582913091 -0.085249989326553047
leaf_weight=5.7276993989944485 6.3337793648242968 9.4278612881898898 4.8101281374692944 6.6533319354057303 4.8101281374692917 4.4684565067291251 8.83729040622711
leaf_count=25 27 39 21 28 21 20 39
internal_value=-0.000134771 0.0746189 -0.0558527 0.119146 -0.00545947 -0.086852 -0.0997561
internal_weight=51.0687 21.8089 29.2598 16.0812 11.1439 18.1159 13.3057
internal_count=220 92 128 67 48 80 59
is_linear=0
shrinkage=0.1


Tree=2
num_leaves=9
num_cat=0
split_feature=3 4 3 2 1 4 7 1
split_gain=17.4058 7.11729 6.63311 1.79191 1.73753 0.740055 0.509879 0.478771
threshold=0.87500000000000011 1.0450000000000002 0.37500000000000006 4.0500000000000007 3.5500000000000003 0.89500000000000013 0.16117164569176956 3.8500000000000001
decision_type=2 2 2 2 2 2 2 2
left_child=1 2 4 -4 -1 -2 -7 -6
right_child=5 -3 3 -5 7 6 -8 -9
leaf_value=0.054882348465388898 -0.046795085750489407 -0.049017874289155813 -0.039861271374437651 0.044869441849985481 0.14713145067683339 -0.12127650821192065 -0.078999181951170838 0.10637344947168002
leaf_weight=4.8558565229177537 4.7366002947092083 6.769356131553649 5.0904838740825635 4.8970142751932144 5.6082770079374296 4.2696449160575858 8.595726326107977 5.9288527965545654
leaf_count=20 21 30 22 21 23 20 39 24
internal_value=-0.000220517 0.0424533 0.0659253 0.00168342 0.105065 -0.0805883 -0.0930298 0.126186
internal_weight=50.7518 33.1498 26.3805 9.9875 16.393 17.602 12.8654 11.5371
internal_count=220 140 110 43 67 80 59 47
is_linear=0
shrinkage=0.1


Tree=3
num_leaves=8
num_cat=0
split_feature=3 7 5 4 2 4 7
split_gain=14.3901 6.17903 7.80197 3.85703 4.36812 0.66042 0.475687
threshold=0.87500000000000011 0.78388505059297142 0.99500000000000011 1.0450000000000002 3.0500000000000003 0.89500000000000013 0.16117164569176956
decision_type=2 2 2 2 2 2 2
left_child=1 2 3 4 -1 -2 -7
right_child=5 -3 -4 -5 -6 6 -8
leaf_value=0.082790521020319655 -0.042792783422564158 0.14000100317492042 0.095152660950343845 -0.091183573752184166 -0.033168969055927575 -0.11498446586263032 -0.073271104791352862
leaf_weight=5.2102978378534379 4.6654982417821911 5.0438245534896842 9.2413193583488447 5.1081491261720648 8.6275864839553815 4.0636816620826712 8.3538350611925107
leaf_count=21 21 21 38 23 37 20 39
internal_value=-0.000280481 0.0380634 0.0198228 -0.0169209 0.0104926 -0.07487 -0.086922
internal_weight=50.3142 33.2312 28.1874 18.946 13.8379 17.083 12.4175
internal_count=220 140 119 81 58 80 59
is_linear=0
shrinkage=0.1


Tree=4
num_leaves=9
num_cat=0
split_feature=2 5 1 5 1 5 1 5
split_gain=12.0291 6.25226 3.93475 3.28785 3.83298 2.3731 0.430697 0.1871
threshold=3.6500000000000008 0.9850000000000001 3.7250000000000005 0.88500000000000012 4.4150000000000009 0.87500000000000011 5.1250000000000009 0.96000000000000008
decision_type=2 2 2 2 2 2 2 2
left_child=1 2 5 -2 7 -1 -6 -5
right_child=3 -3 -4 4 6 -7 -8 -9
leaf_value=-0.081898269756708761 -0.12256720506623256 0.12679943940500729 0.065653693075201719 0.00038343709540370559 -0.098418237012785556 0.018509609631661279 -0.056709223587125934 0.028718019822026916
leaf_weight=4.3691588342189842 5.0047719478607204 7.208898499608039 8.5903741568326932 4.6386550068855303 4.2529990673065168 5.1031439900398254 5.924701139330864 4.6833680123090744
leaf_count=20 24 29 36 21 20 21 29 20
internal_value=-0.000341497 0.048066 0.0166432 -0.0502644 -0.0317072 -0.0278042 -0.0741383 0.0146187
internal_weight=49.7761 25.2716 18.0627 24.5045 19.4997 9.4723 10.1777 9.32202
internal_count=220 106 77 114 90 41 49 41
is_linear=0
shrinkage=0.1


Tree=5
num_leaves=9
num_cat=0
split_feature=0 5 5 1 0 1 2 1
split_gain=10.0347 5.18305 2.60048 2.89327 2.20699 1.76553 0.61442 0.382192
threshold=1.9750000000000003 0.85500000000000009 0.88500000000000012 4.4150000000000009 1.7400000000000002 3.5500000000000003 1.5850000000000002 5.1250000000000009
decision_type=2 2 2 2 2 2 2 2
left_child=2 -2 -1 4 -4 -3 -7 -5
right_child=1 5 3 7 -6 6 -8 -9
leaf_value=-0.11402313592604374 -0.032444112009321284 0.027248049471096276 0.043212930764714094 -0.092318015568579381 -0.044397625974512772 0.069608800649237135 0.11560132161752708 -0.052372047425347672
leaf_weight=4.327547803521159 6.0587469488382366 5.3413301259279278 6.5303725451231021 4.0892632305622083 5.1372952908277512 4.9845068752765638 6.9610636085271835 5.7815327495336533
leaf_count=22 28 22 29 20 22 20 28 29
internal_value=-0.000385829 0.0471456 -0.0432858 -0.0290731 0.00463784 0.0750403 0.0964101 -0.0689208
internal_weight=49.2117 23.3456 25.866 21.5385 11.6677 17.2869 11.9456 9.8708
internal_count=220 98 122 100 51 70 48 49
is_linear=0
shrinkage=0.1


Tree=6
num_leaves=9
num_cat=0
split_feature=2 5 2 5 1 2 1 5
split_gain=8.30248 4.56904 3.43792 2.66114 2.69795 0.438627 0.341037 0.151002
threshold=3.6500000000000008 0.9850000000000001 1.8750000000000002 0.88500000000000012 4.4150000000000009 3.0500000000000003 5.1250000000000009 0.96000000000000008
decision_type=2 2 2 2 2 2 2 2
left_child=1 2 -1 -2 7 -4 -6 -5
right_child=3 -3 5 4 6 -7 -8 -9
leaf_value=0.06680049545063331 -0.11206922502036686 0.10695725518614702 -0.0038459614178177901 -0.0014143773563591766 -0.086701043246154685 -0.044129339836774639 -0.048329140248150278 0.023931568525662892
leaf_weight=7.0754454582929673 4.5217762142419842 7.1838139891624442 5.7458593845367414 4.6691277325153369 3.9273278117179853 5.1040525436401367 5.6459789872169495 4.7334335893392563
leaf_count=30 24 29 25 21 20 22 29 20
internal_value=-0.000406911 0.0395739 0.0125691 -0.0431297 -0.026702 -0.0227962 -0.0640707 0.0113453
internal_weight=48.6068 25.1092 17.9254 23.4976 18.9759 10.8499 9.57331 9.40256
internal_count=220 106 77 114 90 47 49 41
is_linear=0
shrinkage=0.1


Tree=7
num_leaves=8
num_cat=0
split_feature=3 7 4 5 2 4 7
split_gain=6.86296 3.84376 4.51535 1.91867 2.55713 0.628266 0.508418
threshold=0.87500000000000011 0.78388505059297142 1.0450000000000002 0.99500000000000011 3.0500000000000003 0.89500000000000013 0.16117164569176956
decision_type=2 2 2 2 2 2 2
left_child=1 2 3 4 -1 -2 -7
right_child=5 -3 -4 -5 -6 6 -8
leaf_value=0.060211944337373806 -0.023650470388537344 0.10505113688032451 -0.078248812371363691 0.063949664651575561 -0.02873964587153462 -0.10038315579701976 -0.054032766094429155
leaf_weight=5.2176521569490495 4.2807051986455908 5.0995575040578833 4.7431626319885245 9.3053556531667692 8.4913204163312894 3.4817981868982297 7.3882623910903931
leaf_count=21 21 21 23 38 37 20 39
internal_value=-0.000420631 0.0252539 0.0105937 0.0289038 0.00511544 -0.0561003 -0.0688793
internal_weight=48.0078 32.857 27.7575 23.0143 13.709 15.1508 10.8701
internal_count=220 140 119 96 58 80 59
is_linear=0
shrinkage=0.1


Tree=8
num_leaves=9
num_cat=0
split_feature=2 5 2 5 1 0 1 6
split_gain=5.82166 3.30814 2.33847 2.3122 2.02929 0.608197 0.344776 0.11193
threshold=3.6500000000000008 0.9850000000000001 1.8750000000000002 0.88500000000000012 4.4150000000000009 2.2250000000000005 5.1250000000000009 0.74061314775182596
decision_type=2 2 2 2 2 2 2 2
left_child=1 2 -1 -2 7 -4 -6 -5
right_child=3 -3 5 4 6 -7 -8 -9
leaf_value=0.054594880348317859 -0.10478118676055928 0.090942563103642557 0.0080578939735124321 0.00016645597492705627 -0.079360971365383254 -0.040235521882315814 -0.039609082194171051 0.022051671824007933
leaf_weight=7.0626588165760102 4.1350263357162502 7.0543592125177375 4.5528728216886503 4.9144405126571673 3.6908825486898404 6.1039507240056992 5.336379274725914 4.4557023048400879
leaf_count=30 24 29 20 21 20 27 29 20
internal_value=-0.000428335 0.0330275 0.00997072 -0.0372122 -0.0220252 -0.0196033 -0.055862 0.0105733
internal_weight=47.3063 24.7738 17.7195 22.5324 18.3974 10.6568 9.02726 9.37014
internal_count=220 106 77 114 90 47 49 41
is_linear=0
shrinkage=0.1


Tree=9
num_leaves=8
num_cat=0
split_feature=0 5 5 1 1 6 3
split_gain=4.88117 3.3223 1.15144 1.43108 1.55651 0.801489 0.372182
threshold=1.9750000000000003 0.85500000000000009 0.89500000000000013 4.4150000000000009 3.8500000000000001 0.56648343485366226 1.3750000000000002
decision_type=2 2 2 2 2 2 2
left_child=2 -2 -1 4 -4 -3 -5
right_child=1 5 3 6 -6 -7 -8
leaf_value=-0.073638286079073204 -0.031560141037485889 0.074862970067842427 -0.031983932270478597 -0.069230513960312989 0.046457597014490121 0.030902276424598654 -0.027437454897566788
leaf_weight=5.1882742345333126 5.9392497688531902 9.3876383304595965 5.3618967831134814 4.7305402904748899 4.789023220539093 7.4296351522207251 3.8773141503334045
leaf_count=30 28 39 23 26 21 31 22
internal_value=-0.000428435 0.032735 -0.0319432 -0.0204112 0.00502338 0.0554418 -0.0504053
internal_weight=46.7036 22.7565 23.947 18.7588 10.1509 16.8173 8.60785
internal_count=220 98 122 92 44 70 48
is_linear=0
shrinkage=0.1


Tree=10
num_leaves=8
num_cat=0
split_feature=7 5 1 5 2 2 6
split_gain=4.22104 2.54024 3.98794 1.81535 2.82055 0.595391 0.550414
threshold=0.78388505059297142 0.85500000000000009 4.4150000000000009 0.99500000000000011 3.0500000000000003 6.7500000000000009 0.66154731416345192
decision_type=2 2 2 2 2 2 2
left_child=1 -1 3 4 -3 -4 -6
right_child=-2 2 5 -5 6 -7 -8
leaf_value=-0.069426286491574313 0.086527892130906364 0.062896143897809481 -0.08631675754964846 0.054949583264501251 -0.053589588575832452 -0.034919848737431057 -0.0089221336562596964
leaf_weight=6.2918433994054785 4.9804373234510413 4.9176427870988908 3.9196408689022046 9.3790617883205396 4.7839403301477414 5.3034544587135315 6.5165870189666748
leaf_count=35 21 20 22 39 21 31 31
internal_value=-0.000417291 -0.0109501 -0.000383726 0.0199305 -0.000321275 -0.0567626 -0.0278316
internal_weight=46.0926 41.1122 34.8203 25.5972 16.2182 9.2231 11.3005
internal_count=220 199 164 111 72 53 52
is_linear=0
shrinkage=0.1


Tree=11
num_leaves=8
num_cat=0
split_feature=0 5 1 0 0 2 6
split_gain=5.10922 3.03205 3.44511 1.79488 1.00627 0.529222 0.240439
threshold=5.8750000000000009 0.85500000000000009 4.4150000000000009 2.0750000000000006 1.7400000000000002 6.7500000000000009 0.56648343485366226
decision_type=2 2 2 2 2 2 2
left_child=1 -1 3 4 -3 -4 -5
right_child=-2 2 5 6 -6 -7 -8
leaf_value=-0.073460503382913059 0.10464330401455278 0.021716504239491195 -0.081354850725060962 0.062799111344456621 -0.031556325770219627 -0.0320792450842287 0.033838027060429973
leaf_weight=6.560996174812316 4.2006758451461783 7.2136479467153567 3.75172510743141 5.8977141976356489 6.9732701629400253 5.2013231515884399 5.577797070145607
leaf_count=37 18 33 22 25 31 31 23
internal_value=-0.000413418 -0.0111309 0.000682982 0.0193168 -0.00446859 -0.0527279 0.0487223
internal_weight=45.3771 41.1765 34.6155 25.6624 14.1869 8.95305 11.4755
internal_count=220 202 165 112 64 53 48
is_linear=0
shrinkage=0.1


Tree=12
num_leaves=8
num_cat=0
split_feature=0 5 1 0 4 5 1
split_gain=4.23198 2.56971 2.86011 1.46912 0.931621 0.495595 0.220842
threshold=5.8750000000000009 0.85500000000000009 4.4150000000000009 2.0750000000000006 0.94000000000000006 1.0050000000000001 3.5500000000000003
decision_type=2 2 2 2 2 2 2
left_child=1 -1 3 4 -3 -4 -5
right_child=-2 2 5 6 -6 -7 -8
leaf_value=-0.068805283601935538 0.09621246941977929 0.023810357350282366 -0.069003426650317223 0.027993086401670308 -0.027618346954000783 -0.02055156032817641 0.056156785739572813
leaf_weight=6.3173906058073035 4.1163186132907859 6.5066116005182284 5.0952169150114042 4.8417664021253568 7.6796350926160812 3.6045475751161575 6.5517302006483078
leaf_count=37 18 27 33 20 37 20 28
internal_value=-0.00040277 -0.0101991 0.000601511 0.0174469 -0.00403025 -0.0489285 0.0441884
internal_weight=44.7132 40.5969 34.2795 25.5797 14.1862 8.69976 11.3935
internal_count=220 202 165 112 64 53 48
is_linear=0
shrinkage=0.1


Tree=13
num_leaves=9
num_cat=0
split_feature=2 1 5 0 4 5 7 7
split_gain=3.81606 1.63174 2.4163 1.61241 1.1347 1.70405 1.78816 0.163352
threshold=1.4700000000000002 4.4150000000000009 0.99500000000000011 1.4300000000000002 1.0450000000000002 0.92500000000000016 0.42181883537023729 0.14111351219999049
decision_type=2 2 2 2 2 2 2 2
left_child=-1 2 4 7 5 6 -2 -3
right_child=1 3 -4 -5 -6 -7 -8 -9
leaf_value=0.10238801782291128 -0.013360837653537353 -0.031959713965694518 0.045179038468607186 -0.10283158810453419 -0.056629076385878545 -0.054969837451881769 0.066141244196573204 4.4844756953494634e-06
leaf_weight=3.338318169116973 7.4895522445440381 3.178301125764845 9.2356604039669019 3.1996710151433945 5.1966238766908637 4.5850546658039084 4.5465259104967117 3.2171663418412209
leaf_count=15 36 20 39 20 30 20 19 21
internal_value=-0.000391069 -0.00883194 0.00230521 -0.0448759 -0.0158437 -0.00309206 0.0166704 -0.0158805
internal_weight=43.9869 40.6486 31.0534 9.59514 21.8178 16.6211 12.0361 6.39547
internal_count=220 205 144 61 105 75 55 41
is_linear=0
shrinkage=0.1


Tree=14
num_leaves=9
num_cat=0
split_feature=2 5 1 5 5 7 5 0
split_gain=3.18964 1.37248 1.82061 0.982566 1.59015 0.892217 0.393001 0.343544
threshold=1.4700000000000002 0.87500000000000011 4.4150000000000009 0.99500000000000011 0.92500000000000016 0.3607172643869892 1.0050000000000001 2.1750000000000003
decision_type=2 2 2 2 2 2 2 2
left_child=-1 5 3 4 7 -2 -4 -3
right_child=1 2 6 -5 -6 -7 -8 -9
leaf_value=0.095023731570742995 -0.087593902527666093 0.0020761800794191153 -0.05928400245900476 0.040898064652465586 -0.049918845700987424 -0.019525701078257823 -0.014578508380533931 0.039142844297410266
leaf_weight=3.2423986196517935 3.0221080109477025 4.7989814430475288 4.5267325416207296 9.1848877370357496 4.5461833178997031 5.3077239990234375 3.4766434878110886 5.2204865664243698
leaf_count=15 22 23 31 39 20 28 20 22
internal_value=-0.000375879 -0.00809281 0.00138456 0.0152844 -0.000867245 -0.0442212 -0.0398641 0.0213892
internal_weight=43.3261 40.0837 31.7539 23.7505 14.5657 8.32983 8.00338 10.0195
internal_count=220 205 155 104 65 50 51 45
is_linear=0
shrinkage=0.1


Tree=15
num_leaves=9
num_cat=0
split_feature=0 7 2 7 5 0 0 3
split_gain=2.51737 1.79591 2.26747 1.20481 1.39095 0.614512 1.15876 0.495197
threshold=5.8750000000000009 0.69279652159371219 2.8150000000000004 0.16117164569176956 0.88500000000000012 2.0750000000000006 1.7400000000000002 0.87500000000000011
decision_type=2 2 2 2 2 2 2 2
left_child=1 2 -1 -4 -5 6 7 -6
right_child=-2 -3 3 4 5 -7 -8 -9
leaf_value=0.077864396206194897 0.077014235258614908 -0.07588101189095886 -0.057313989230659584 -0.043437929326229786 0.048881354926827263 0.039312640967488571 -0.033800351705916103 0.0032127338219860978
leaf_weight=3.2914027720689765 3.8278833180665961 3.5404309034347525 4.4924466982483855 6.1376221626997021 3.9992873370647448 5.5177931189537039 6.064776510000228 5.8436454236507416
leaf_count=15 18 17 30 39 17 23 27 34
internal_value=-0.000361941 -0.00797847 -0.0011772 -0.00929303 -0.00146622 0.0105571 0.00058293 0.0217684
internal_weight=42.7153 38.8874 35.347 32.0556 27.5631 21.4255 15.9077 9.84293
internal_count=220 202 185 170 140 101 78 51
is_linear=0
shrinkage=0.1


Tree=16
num_leaves=9
num_cat=0
split_feature=2 2 1 0 3 4 7 2
split_gain=1.483 1.91122 2.3482 0.907812 1.57217 0.520211 0.676352 0.424503
threshold=3.6500000000000008 3.1500000000000008 4.2650000000000015 1.7400000000000002 0.87500000000000011 0.89500000000000013 0.17616045955740614 2.0250000000000004
decision_type=2 2 2 2 2 2 2 2
left_child=1 2 7 4 -2 -6 -7 -1
right_child=3 -3 -4 -5 5 6 -8 -9
leaf_value=-0.00025157968945586505 0.043653509252213035 0.067361872871369424 0.060510382898785346 -0.066900053146368016 0.0029598838315580264 -0.00931304004365569 -0.066433959562079717 -0.038188351532633884
leaf_weight=4.9689907729625755 4.0287241041660371 5.6741344928741446 4.682177633047103 3.4626328647136679 3.6810479313135138 3.6154348105192167 4.8586227670311928 7.2577653080224991
leaf_count=24 17 26 22 17 21 27 32 34
internal_value=-0.000336415 0.0171424 0.000290271 -0.0204279 -0.0104848 -0.0284286 -0.0420635 -0.0227707
internal_weight=42.2295 22.5831 16.9089 19.6465 16.1838 12.1551 8.47406 12.2268
internal_count=220 106 80 114 97 80 59 58
is_linear=0
shrinkage=0.1


Tree=17
num_leaves=8
num_cat=0
split_feature=7 1 5 0 0 6 0
split_gain=1.35194 1.48615 1.28058 0.643078 0.538645 0.68333 0.480966
threshold=0.16117164569176956 4.8750000000000009 0.85500000000000009 2.0750000000000006 1.7400000000000002 0.77335335542667782 3.5500000000000003
decision_type=2 2 2 2 2 2 2
left_child=-1 2 -2 4 5 -4 -5
right_child=1 -3 3 6 -6 -7 -8
leaf_value=-0.053301229457112534 -0.043138636585642536 0.063858451799597871 0.033184405327057145 0.041375356154136407 -0.026736657867837722 -0.02292766215197007 0.00016297683468329864
leaf_weight=4.3207778558135024 5.9487815722823134 3.9415922090411177 5.4078041464090365 7.344834700226782 6.7113544791936866 3.6251581683754921 4.6086059510707855
leaf_count=30 36 24 25 31 31 22 21
internal_value=-0.00032632 0.00576318 -0.00104251 0.00799868 -0.00527815 0.0106652 0.0254861
internal_weight=41.9089 37.5881 33.6465 27.6978 15.7443 9.03296 11.9534
internal_count=220 190 166 130 78 47 52
is_linear=0
shrinkage=0.1


Tree=18
num_leaves=8
num_cat=0
split_feature=0 4 2 2 7 6 3
split_gain=1.1457 1.36428 2.14504 1.8969 0.484924 0.948902 0.419294
threshold=1.8150000000000002 0.9850000000000001 3.1500000000000008 2.8150000000000004 0.16117164569176956 0.78875319885593875 0.87500000000000011
decision_type=2 2 2 2 2 2 2
left_child=4 2 -2 -3 -1 6 -6
right_child=1 3 -4 -5 5 -7 -8
leaf_value=-0.049731242250616904 0.00089342848185200777 0.037885416662404914 0.088084340976797973 -0.040286880771349759 -0.0095408278662567694 0.031926373279811023 -0.052570539443887648
leaf_weight=4.1756437793374088 6.5101271271705645 5.208294674754141 4.9799676388502121 7.6833490282297134 5.3626848161220533 3.7440722957253447 3.9198007360100746
leaf_count=30 31 25 22 38 24 25 25
internal_value=-0.000315075 0.0136272 0.0386832 -0.00870484 -0.0200763 -0.0105704 -0.0277114
internal_weight=41.5839 24.3817 11.4901 12.8916 17.2022 13.0266 9.28249
internal_count=220 116 53 63 104 74 49
is_linear=0
shrinkage=0.1


Tree=19
num_leaves=9
num_cat=0
split_feature=0 0 1 5 2 7 1 4
split_gain=1.04976 1.32643 1.77974 0.611776 0.480617 0.447441 0.756884 0.493926
threshold=1.9750000000000003 2.2250000000000005 4.2650000000000015 0.89500000000000013 2.8900000000000001 0.16117164569176956 3.8500000000000001 0.90500000000000014
decision_type=2 2 2 2 2 2 2 2
left_child=3 -2 4 -1 -3 -5 -7 -8
right_child=1 2 -4 5 -6 6 7 -9
leaf_value=-0.050871108809292812 0.058325738995839753 -0.0036513596373128733 0.052849463599843563 -0.038741680368845163 -0.04702159104516887 -0.028755794341263498 0.043907162516172112 -0.0057556920111787703
leaf_weight=4.062372379004958 5.4028370827436474 5.9768669754266721 4.5325782746076575 3.6317436844110516 4.4631827920675278 5.221432000398635 4.1879073381423932 3.8378412425518036
leaf_count=30 25 30 22 26 21 23 21 22
internal_value=-0.000308224 0.0158514 0.000524603 -0.0160312 -0.0221924 -0.00764602 0.000878924 0.0201588
internal_weight=41.3168 20.3755 14.9726 20.9413 10.44 16.8789 13.2472 8.02575
internal_count=220 98 73 122 51 92 66 43
is_linear=0
shrinkage=0.1


Tree=20
num_leaves=9
num_cat=0
split_feature=0 0 1 5 2 7 1 4
split_gain=0.860036 1.07831 1.46166 0.52056 0.394917 0.374126 0.61446 0.393867
threshold=1.9750000000000003 2.2250000000000005 4.2650000000000015 0.89500000000000013 2.8900000000000001 0.16117164569176956 3.8500000000000001 0.90500000000000014
decision_type=2 2 2 2 2 2 2 2
left_child=3 -2 4 -1 -3 -5 -7 -8
right_child=1 2 -4 5 -6 6 7 -9
leaf_value=-0.047352697761439383 0.052729280875619726 -0.0032853924609811355 0.048372073028610671 -0.035815523036325222 -0.042690700515643942 -0.026080958126014787 0.03907226495229929 -0.0051955102884634723
leaf_weight=3.9346657916903522 5.3798608183860805 5.9782957285642606 4.4608000069856635 3.5405539795756367 4.426365852355957 5.1833295077085486 4.2329652309417707 3.8270738124847412
leaf_count=30 25 30 22 26 21 23 21 22
internal_value=-0.000291805 0.0143662 0.00048249 -0.014615 -0.0200493 -0.00694028 0.000779389 0.018053
internal_weight=40.9639 20.2453 14.8655 20.7186 10.4047 16.7839 13.2434 8.06004
internal_count=220 98 73 122 51 92 66 43
is_linear=0
shrinkage=0.1


Tree=21
num_leaves=9
num_cat=0
split_feature=0 0 1 5 2 5 7 0
split_gain=0.704292 0.877308 1.19998 0.441708 0.324446 0.320451 0.432771 0.775816
threshold=1.9750000000000003 2.2250000000000005 4.2650000000000015 0.89500000000000013 2.8900000000000001 0.92500000000000016 0.18875043875043876 1.6600000000000001
decision_type=2 2 2 2 2 2 2 2
left_child=3 -2 4 -1 -3 -5 -7 -8
right_child=1 2 -4 5 -6 6 7 -9
leaf_value=-0.044003403347806211 0.047696271991253938 -0.0029561910948554186 0.044250536806884455 0.016245874277271328 -0.038755931899992373 -0.043396490164542334 0.027932102847377505 -0.032739346980184346
leaf_weight=3.8170745596289661 5.3541769087314632 5.9795663803815824 4.3923718333244315 4.5770041272044208 4.3901546746492386 3.6855500340461722 4.2273746728897077 4.203131303191185
leaf_count=30 25 30 22 26 21 26 22 18
internal_value=-0.000274631 0.0130202 0.000443266 -0.0133142 -0.0181125 -0.00629668 -0.0148124 -0.00231639
internal_weight=40.6264 20.1163 14.7621 20.5101 10.3697 16.6931 12.1161 8.43051
internal_count=220 98 73 122 51 92 66 40
is_linear=0
shrinkage=0.1


Tree=22
num_leaves=8
num_cat=0
split_feature=1 7 6 4 6 4 0
split_gain=0.681614 0.926894 1.19254 1.44181 2.54827 0.778161 1.62705
threshold=5.3750000000000009 0.21985187748606203 0.23458513549101268 1.0450000000000002 0.56648343485366226 0.9850000000000001 1.8150000000000002
decision_type=2 2 2 2 2 2 2
left_child=1 -1 -3 4 -4 6 -6
right_child=-2 2 3 -5 5 -7 -8
leaf_value=-0.045768443314797833 0.03527672519310894 -0.047655795067915202 0.08713461696641478 -0.046828457484341855 -0.025802286453825009 -0.02261956416967402 0.052770847974810131
leaf_weight=4.8240342736244193 4.760567530989646 4.2712888568639782 4.4143563956022325 3.9041207283735266 4.5681685060262698 7.3712754547595969 6.2290333062410355
leaf_count=33 35 20 20 27 21 36 28
internal_value=-0.000259687 -0.00501412 0.00137767 0.00928481 0.0189857 0.00242767 0.0195275
internal_weight=40.3428 35.5823 30.7582 26.487 22.5828 18.1685 10.7972
internal_count=220 185 152 132 105 85 49
is_linear=0
shrinkage=0.1


Tree=23
num_leaves=9
num_cat=0
split_feature=7 7 0 4 7 6 3 2
split_gain=1.21329 1.82388 0.909533 1.05753 0.391245 0.567989 0.506368 0.529718
threshold=0.79495809863992328 0.69279652159371219 2.0750000000000006 0.9850000000000001 0.16117164569176956 0.78875319885593875 0.87500000000000011 4.0500000000000007
decision_type=2 2 2 2 2 2 2 2
left_child=1 2 4 -4 -1 6 7 -6
right_child=-2 -3 3 -5 5 -7 -8 -9
leaf_value=-0.039178036578559866 0.056674042037906394 -0.074823714217699941 0.063897597210440749 -0.00016647636357088651 -0.021377636264650599 0.031009081935061369 -0.044901489760871369 0.022320473887421796
leaf_weight=3.7752718627452877 3.4253031462430945 3.444383665919303 4.3097163438796979 6.4077735394239426 6.2865671366453189 3.7327199876308432 3.6630647853016844 4.9649861305952072
leaf_count=30 18 17 20 32 31 25 25 22
internal_value=-0.000237185 -0.00556562 0.00163265 0.025595 -0.00982079 -0.00387723 -0.0126083 -0.00209492
internal_weight=40.0098 36.5845 33.1401 10.7175 22.4226 18.6473 14.9146 11.2516
internal_count=220 202 185 52 133 103 78 53
is_linear=0
shrinkage=0.1


Tree=24
num_leaves=9
num_cat=0
split_feature=1 7 6 5 6 7 2 1
split_gain=0.576244 0.778143 0.961635 1.07223 2.06032 0.752547 0.519303 0.810418
threshold=5.3750000000000009 0.21985187748606203 0.23458513549101268 0.85500000000000009 0.56648343485366226 0.39714233376076208 3.6500000000000008 3.8500000000000001
decision_type=2 2 2 2 2 2 2 2
left_child=1 -1 -3 -4 -5 6 -6 -8
right_child=-2 2 3 4 5 -7 7 -9
leaf_value=-0.042533713896750779 0.032514870551912912 -0.042618471301966943 -0.041200778170874787 0.079344363778668672 0.043219531500514309 -0.033365812914928461 -0.029188225530213552 0.029845724359375131
leaf_weight=4.6948260068893424 4.7359821870923033 4.2927032262086895 3.7216075956821468 4.2573929280042675 4.1547434628009823 4.5122165977954856 4.593453645706175 4.7097605913877487
leaf_count=33 35 20 27 20 20 19 21 25
internal_value=-0.000218695 -0.00465602 0.00122421 0.00847698 0.0167946 0.0019757 0.0138251 0.000697765
internal_weight=39.6727 34.9367 30.2419 25.9492 22.2276 17.9702 13.458 9.30321
internal_count=220 185 152 132 105 85 66 46
is_linear=0
shrinkage=0.1


Tree=25
num_leaves=9
num_cat=0
split_feature=7 1 1 4 2 6 0 7
split_gain=0.577001 0.484726 0.827032 0.790997 0.685129 0.923192 0.848876 0.56741
threshold=0.78388505059297142 3.9500000000000006 4.2650000000000015 0.89500000000000013 3.1500000000000008 0.6488857278330965 2.2750000000000004 0.17616045955740614
decision_type=2 2 2 2 2 2 2 2
left_child=1 4 -3 -4 6 -6 -1 -5
right_child=-2 2 3 7 5 -7 -8 -9
leaf_value=-0.048006683667507828 0.035500856616273835 -0.051253530658904756 0.032365839875979845 0.0065218138396698688 0.063165875001555613 0.00061126361589391076 0.011995559219058627 -0.052271262938566578
leaf_weight=4.0131866782903689 4.0609154701232901 4.9463994204998007 4.1484142988920194 3.2242400795221329 3.8196299970149976 6.170610748231411 5.7161405682563782 3.3439940810203552
leaf_count=17 21 27 24 27 19 29 33 23
internal_value=-0.000200382 -0.00429787 -0.0174309 -0.0018196 0.00613353 0.0245282 -0.0127544 -0.0234107
internal_weight=39.4435 35.3826 15.663 10.7166 19.7196 9.99024 9.72933 6.56823
internal_count=220 199 101 74 98 48 50 50
is_linear=0
shrinkage=0.1


Tree=26
num_leaves=9
num_cat=0
split_feature=7 1 0 2 4 0 0 2
split_gain=0.611772 0.714904 0.946902 0.598731 1.45073 0.609636 1.23683 0.143301
threshold=0.16117164569176956 4.8750000000000009 4.2650000000000015 2.8900000000000001 1.0150000000000003 2.0750000000000006 1.7400000000000002 5.1250000000000009
decision_type=2 2 2 2 2 2 2 2
left_child=-1 2 3 -2 5 6 7 -5
right_child=1 -3 -4 4 -6 -7 -8 -9
leaf_value=-0.038611803066086386 0.040304784993222008 0.04515312733682008 -0.044610443673944573 0.013601957712311014 -0.052217310098291204 0.041669847285341365 -0.034464952295373559 0.040223851701401511
leaf_weight=3.7490027174353591 4.2552507519722047 3.7505557909607878 4.3065383583307257 4.3396578952670151 4.3975770547986022 4.9579669237136832 5.7943512052297583 3.7858913093805313
leaf_count=30 23 24 20 20 32 22 27 22
internal_value=-0.000189111 0.00385853 -0.00100614 0.00581475 -0.000490774 0.0115589 0.000833981 0.0260057
internal_weight=39.3368 35.5878 31.8372 27.5307 23.2754 18.8779 13.9199 8.12555
internal_count=220 190 166 146 123 91 69 42
is_linear=0
shrinkage=0.1


Tree=27
num_leaves=9
num_cat=0
split_feature=7 1 7 4 1 1 0 5
split_gain=0.493549 0.446878 1.62034 0.601629 0.460007 0.54853 2.09732 0.426291
threshold=0.78388505059297142 4.4150000000000009 0.19250511204774029 1.0350000000000004 3.5500000000000003 3.7750000000000004 1.7400000000000002 0.9850000000000001
decision_type=2 2 2 2 2 2 2 2
left_child=1 3 7 4 -1 -6 -7 -3
right_child=-2 2 -4 -5 5 6 -8 -9
leaf_value=-0.015787305408251618 0.033178549373849023 0.034626648534309121 -0.091247617805491954 -0.030740453338570197 0.041245689827065661 0.041648277583316927 -0.047470601874080656 -0.020908901872571939
leaf_weight=5.6468328982591691 3.9826613813638678 2.6408634409308416 2.5131497755646706 4.6085081025958052 6.0678179413080242 6.1966037377715093 4.6018530130386353 2.899969682097435
leaf_count=26 21 23 17 33 29 30 21 20
internal_value=-0.000186177 -0.00396381 -0.0246474 0.00217836 0.00891695 0.0171879 0.00366952 0.00556037
internal_weight=39.1583 35.1756 8.05398 27.1216 22.5131 16.8663 10.7985 5.54083
internal_count=220 199 60 139 106 80 51 43
is_linear=0
shrinkage=0.1


Tree=28
num_leaves=8
num_cat=0
split_feature=7 1 1 2 6 0 6
split_gain=0.513602 0.629504 0.900163 0.579432 0.786047 0.764455 0.240086
threshold=0.16117164569176956 4.2650000000000015 3.9500000000000006 3.1500000000000008 0.65395149315294521 2.2750000000000004 0.78875319885593875
decision_type=2 2 2 2 2 2 2
left_child=-1 2 3 5 -5 -2 -3
right_child=1 6 -4 4 -6 -7 -8
leaf_value=-0.035853209315539411 -0.045781239989896333 0.013547600156269428 -0.0405700207219373 0.053925325767471555 -0.0028772562697756228 0.011415268406109918 0.045993138434583691
leaf_weight=3.6589758098125449 4.0048317015171104 6.8370330482721311 5.5503505766391745 4.3434612452983838 5.5480140373110771 5.610227070748806 3.422191746532917
leaf_count=30 17 39 30 22 26 33 23
internal_value=-0.000189494 0.0035055 -0.00503743 0.00507295 0.0220654 -0.012408 0.0243705
internal_weight=38.9751 35.3161 25.0569 19.5065 9.89148 9.61506 10.2592
internal_count=220 190 128 98 48 50 62
is_linear=0
shrinkage=0.1


Tree=29
num_leaves=7
num_cat=0
split_feature=1 0 6 5 2 0
split_gain=0.45394 0.723553 0.752708 0.92279 0.528173 0.390217
threshold=5.3750000000000009 1.5400000000000003 0.23458513549101268 0.96000000000000008 3.0500000000000003 1.9300000000000002
decision_type=2 2 2 2 2 2
left_child=1 -1 -3 4 -4 -6
right_child=-2 2 3 -5 5 -7
leaf_value=-0.041077905074363236 0.029099051297340459 -0.037103246997849913 0.016381122037957566 0.035655562593889793 -0.0025285770192867195 -0.041863598560738589
leaf_weight=4.5974801108241072 4.6610542908310881 4.3065504133701351 6.8734944984316888 8.223207511007784 5.8739159852266294 4.4196043461561203
leaf_count=33 35 20 37 39 35 21
internal_value=-0.000181853 -0.00416153 0.00155365 0.00811042 -0.00508403 -0.0194174
internal_weight=38.9553 34.2943 29.6968 25.3902 17.167 10.2935
internal_count=220 185 152 132 93 56
is_linear=0
shrinkage=0.1


Tree=30
num_leaves=10
num_cat=0
split_feature=7 1 7 4 5 5 4 4 7
split_gain=0.455389 0.364002 1.44837 0.531281 0.561187 0.93528 0.318783 0.304326 0.839023
threshold=0.78388505059297142 4.4150000000000009 0.19250511204774029 1.0350000000000004 1.0350000000000004 0.9850000000000001 0.94000000000000006 1.0050000000000001 0.34875983061101035
decision_type=2 2 2 2 2 2 2 2 2
left_child=1 3 6 4 5 7 -3 8 -1
right_child=-2 2 -4 -5 -6 -7 -8 -9 -10
leaf_value=0.024951791087964508 0.032033680673965857 -0.017955983221377623 -0.08744791585934214 -0.02937392250335337 -0.023577159036120468 0.058155512691768788 0.03004076916221889 0.026767154096177415 -0.033611522581599849
leaf_weight=4.6447791457176297 3.9445805251598349 2.8306857645511618 2.4037960097193718 4.5612345710396758 4.4811357408761969 4.0662431120872489 2.7072442844510078 4.0223749577999106 5.1686816215515137
leaf_count=22 21 20 17 33 21 19 23 21 23
internal_value=-0.000171799 -0.00381327 -0.0226282 0.00173232 0.00807113 0.0159931 0.00550746 0.00360194 -0.0058931
internal_weight=38.8308 34.8862 7.94173 26.9444 22.3832 17.9021 5.53793 13.8358 9.81346
internal_count=220 199 60 139 106 85 43 66 45
is_linear=0
shrinkage=0.1


Tree=31
num_leaves=9
num_cat=0
split_feature=0 0 1 0 3 3 0 4
split_gain=0.391471 0.498641 0.866539 0.409181 0.593624 0.466765 0.345184 0.19651
threshold=1.9750000000000003 2.2250000000000005 4.2650000000000015 1.7400000000000002 0.87500000000000011 1.3750000000000002 1.4900000000000002 1.0050000000000001
decision_type=2 2 2 2 2 2 2 2
left_child=3 -2 7 4 -1 6 -6 -3
right_child=1 2 -4 -5 5 -7 -8 -9
leaf_value=0.031159551174662153 0.037228265665776014 -0.029937836093642298 0.038994491217624466 -0.034761900158628227 -0.055109278491892878 0.014793268277429964 -0.010275936633835289 -0.0015918185448491641
leaf_weight=4.0179775208234814 4.9946170449256924 4.8990433812141401 4.096655771136283 4.989723175764083 2.9455463513731939 3.7206957116723061 4.1184317022562027 4.8837158381938934
leaf_count=17 25 23 22 25 23 29 28 28
internal_value=-0.00017103 0.0101328 0.000382312 -0.0099968 -0.0016489 -0.0138721 -0.0289706 -0.015787
internal_weight=38.6664 18.874 13.8794 19.7924 14.8027 10.7847 7.06398 9.78276
internal_count=220 98 73 122 97 80 51 51
is_linear=0
shrinkage=0.1


Tree=32
num_leaves=8
num_cat=0
split_feature=7 1 1 2 6 0 7
split_gain=0.467497 0.591503 0.702957 0.395864 0.735074 0.677889 0.324788
threshold=0.16117164569176956 4.2650000000000015 3.9500000000000006 3.1500000000000008 0.65395149315294521 2.2750000000000004 0.21330724070450099
decision_type=2 2 2 2 2 2 2
left_child=-1 2 3 5 -5 -2 -3
right_child=1 6 -4 4 -6 -7 -8
leaf_value=-0.034421744655782918 -0.041978775999221549 0.049185218057373706 -0.036446726977600007 0.049595231394999668 -0.0057456334240733606 0.0120305106655214 0.011081660245783456
leaf_weight=3.6091779917478553 3.9716100543737465 3.3695412278175336 5.4966348186135283 4.2352951765060407 5.5392840877175331 5.6016116067767143 6.6556733027100563
leaf_count=30 17 23 30 22 26 33 39
internal_value=-0.000160877 0.00338529 -0.00488816 0.0040775 0.0182334 -0.0103761 0.0238885
internal_weight=38.4788 34.8697 24.8444 19.3478 9.77458 9.57322 10.0252
internal_count=220 190 128 98 48 50 62
is_linear=0
shrinkage=0.1


Tree=33
num_leaves=8
num_cat=0
split_feature=1 6 4 2 1 5 0
split_gain=0.359015 0.53812 0.866078 1.74619 0.449576 1.03605 0.382436
threshold=5.3750000000000009 0.23458513549101268 1.0450000000000002 3.0500000000000003 3.6500000000000008 0.90500000000000014 1.6100000000000003
decision_type=2 2 2 2 2 2 2
left_child=1 -1 3 -3 -5 -6 -7
right_child=-2 2 -4 4 5 6 -8
leaf_value=-0.036824236569878266 0.02591786050749513 0.056181340402256343 -0.042952435923032037 -0.028759414905281683 0.043118841614869868 -0.038876731379805816 0.0022553943731256115
leaf_weight=4.2914822101593009 4.64315541088581 5.7669660151004853 3.8811335787177077 6.1609581559896496 4.4959243088960639 3.965176045894621 5.2578317523002625
leaf_count=20 35 27 31 30 28 26 23
internal_value=-0.000156496 -0.00373631 0.00107256 0.00773486 -0.006319 0.00375863 -0.0154282
internal_weight=38.4626 33.8195 29.528 25.6469 19.8799 13.7189 9.22301
internal_count=220 185 165 134 107 77 49
is_linear=0
shrinkage=0.1


Tree=34
num_leaves=9
num_cat=0
split_feature=0 2 1 5 5 2 2 5
split_gain=0.363415 0.597447 0.847919 1.08872 0.305341 1.56647 1.16412 1.1042
threshold=1.8150000000000002 3.1500000000000008 4.2650000000000015 0.90500000000000014 0.90500000000000014 5.1250000000000009 6.1250000000000009 0.89500000000000013
decision_type=2 2 2 2 2 2 2 2
left_child=4 2 3 -2 7 -6 -7 -1
right_child=1 -3 -4 -5 5 6 -8 -9
leaf_value=-0.032221631133503112 0.0060211250970165914 0.031840619668253044 0.036239618707813004 -0.058829219068771921 -0.07422403005397997 0.054615806598660423 -0.032035046138035074 0.05437298249387236
leaf_weight=3.3234909847378722 7.2213248983025569 7.1752971410751334 4.0273306071758261 4.0353877395391464 3.6798981055617315 2.8849123194813728 3.351776085793972 2.6440294533967972
leaf_count=29 39 36 22 19 17 16 26 16
internal_value=-0.000150672 0.0080366 -0.00313852 -0.0172269 -0.0117271 -0.0224825 0.00804714 0.00614585
internal_weight=38.3434 22.4593 15.284 11.2567 15.8841 9.91659 6.23669 5.96752
internal_count=220 116 80 58 104 59 42 45
is_linear=0
shrinkage=0.1


Tree=35
num_leaves=10
num_cat=0
split_feature=0 7 2 7 1 4 0 5 6
split_gain=0.350131 0.788104 0.868902 0.754867 0.383547 0.440515 0.714499 0.510059 0.448967
threshold=2.0750000000000006 0.42583425009167591 2.0250000000000004 0.77206550229673276 3.6500000000000008 0.90500000000000014 1.5150000000000003 0.90500000000000014 0.7633658958419286
decision_type=2 2 2 2 2 2 2 2 2
left_child=4 -2 3 -3 -1 6 -6 8 -7
right_child=1 2 -4 -5 5 7 -8 -9 -10
leaf_value=-0.039908263329108178 0.0507459069369183 0.048363629684776727 -0.038700429386033207 -0.010873304071432126 -0.016952984028453598 0.031468608709840827 0.045103349835323714 -0.0430294061088769 -0.020556845687583411
leaf_weight=3.2977170795202282 3.8047870397567776 4.0597790926694852 4.1503582447767249 4.5759650468826294 3.5046432912349728 2.8608376011252385 3.9425673335790634 4.1936742216348648 3.9476753100752831
leaf_count=17 18 22 23 24 23 17 18 26 32
internal_value=-0.00014939 0.0107919 -0.00109735 0.0169748 -0.00849647 -0.00288181 0.0158998 -0.0155948 0.00130349
internal_weight=38.338 16.5909 12.7861 8.63574 21.7471 18.4494 7.44721 11.0022 6.80851
internal_count=220 87 69 46 133 116 41 75 49
is_linear=0
shrinkage=0.1


end of trees

feature_importances:
eu_draw=47
eu_home=45
asian_away=44
eu_implied_away=38
eu_away=37
asian_home=28
eu_implied_home=20
asian_handicap=15

parameters:
[boosting: gbdt]
[objective: binary]
[metric: binary_logloss]
[tree_learner: serial]
[device_type: cpu]
[data_sample_strategy: bagging]
[data: ]
[valid: ]
[num_iterations: 200]
[learning_rate: 0.1]
[num_leaves: 31]
[num_threads: 8]
[seed: 0]
[deterministic: 0]
[force_col_wise: 0]
[force_row_wise: 0]
[histogram_pool_size: -1]
[max_depth: -1]
[min_data_in_leaf: 20]
[min_sum_hessian_in_leaf: 0.001]
[bagging_fraction: 1]
[pos_bagging_fraction: 1]
[neg_bagging_fraction: 1]
[bagging_freq: 0]
[bagging_seed: 3]
[bagging_by_query: 0]
[feature_fraction: 1]
[feature_fraction_bynode: 1]
[feature_fraction_seed: 2]
[extra_trees: 0]
[extra_seed: 6]
[early_stopping_round: 0]
[early_stopping_min_delta: 0]
[first_metric_only: 0]
[max_delta_step: 0]
[lambda_l1: 0]
[lambda_l2: 0]
[linear_lambda: 0]
[min_gain_to_split: 0]
[drop_rate: 0.1]
[max_drop: 50]
[skip_drop: 0.5]
[xgboost_dart_mode: 0]
[uniform_drop: 0]
[drop_seed: 4]
[top_rate: 0.2]
[other_rate: 0.1]
[min_data_per_group: 100]
[max_cat_threshold: 32]
[cat_l2: 10]
[cat_smooth: 10]
[max_cat_to_onehot: 4]
[top_k: 20]
[monotone_constraints: ]
[monotone_constraints_method: basic]
[monotone_penalty: 0]
[feature_contri: ]
[forcedsplits_filename: ]
[refit_decay_rate: 0.9]
[cegb_tradeoff: 1]
[cegb_penalty_split: 0]
[cegb_penalty_feature_lazy: ]
[cegb_penalty_feature_coupled: ]
[path_smooth: 0]
[interaction_constraints: ]
[verbosity: -1]
[saved_feature_importance_type: 0]
[use_quantized_grad: 0]
[num_grad_quant_bins: 4]
[quant_train_renew_leaf: 0]
[stochastic_rounding: 1]
[linear_tree: 0]
[max_bin: 255]
[max_bin_by_feature: ]
[min_data_in_bin: 3]
[bin_construct_sample_cnt: 200000]
[data_random_seed: 1]
[is_enable_sparse: 1]
[enable_bundle: 1]
[use_missing: 1]
[zero_as_missing: 0]
[feature_pre_filter: 1]
[pre_partition: 0]
[two_round: 0]
[header: 0]
[label_column: ]
[weight_column: ]
[group_column: ]
[ignore_column: ]
[categorical_feature: ]
[forcedbins_filename: ]
[precise_float_parser: 0]
[parser_config_file: ]
[objective_seed: 5]
[num_class: 1]
[is_unbalance: 0]
[scale_pos_weight: 1]
[sigmoid: 1]
[boost_from_average: 1]
[reg_sqrt: 0]
[alpha: 0.9]
[fair_c: 1]
[poisson_max_delta_step: 0.7]
[tweedie_variance_power: 1.5]
[lambdarank_truncation_level: 30]
[lambdarank_norm: 1]
[label_gain: ]
[lambdarank_position_bias_regularization: 0]
[eval_at: ]
[multi_error_top_k: 1]
[auc_mu_weights: ]
[num_machines: 1]
[local_listen_port: 12400]
[time_out: 120]
[machine_list_filename: ]
[machines: ]
[gpu_platform_id: -1]
[gpu_device_id: -1]
[gpu_use_dp: 0]
[num_gpu: 1]

end of parameters

pandas_categorical:null
